<?xml version="1.0"?>
<opencv_storage>
<stage1>
  <maxWeakCount>53</maxWeakCount>
  <stageThreshold>-1.2803511619567871e+00</stageThreshold>
  <weakClassifiers>
    <_>
      <internalNodes>
        0 -1 6984 7.0049814879894257e-02</internalNodes>
      <leafValues>
        -1.4368790388107300e-01 5.2980691194534302e-01</leafValues></_>
    <_>
      <internalNodes>
        0 -1 100380 3.0015004798769951e-02</internalNodes>
      <leafValues>
        -2.2072416543960571e-01 3.3253720402717590e-01</leafValues></_>
    <_>
      <internalNodes>
        0 -1 146337 -3.9688009768724442e-02</internalNodes>
      <leafValues>
        3.7755683064460754e-01 -1.6932509839534760e-01</leafValues></_>
    <_>
      <internalNodes>
        0 -1 57723 -7.1903737261891365e-03</internalNodes>
      <leafValues>
        3.8509550690650940e-01 -1.7397934198379517e-01</leafValues></_>
    <_>
      <internalNodes>
        0 -1 111233 -6.4010769128799438e-03</internalNodes>
      <leafValues>
        3.0134662985801697e-01 -1.4035992324352264e-01</leafValues></_>
    <_>
      <internalNodes>
        0 -1 58843 -8.6700558662414551e-02</internalNodes>
      <leafValues>
        3.5253047943115234e-01 -1.4939431846141815e-01</leafValues></_>
    <_>
      <internalNodes>
        0 -1 106210 5.2469326183199883e-03</internalNodes>
      <leafValues>
        -1.5631598234176636e-01 3.1342241168022156e-01</leafValues></_>
    <_>
      <internalNodes>
        0 -1 76160 -3.3376264572143555e-01</internalNodes>
      <leafValues>
        -8.3751457929611206e-01 1.0432885587215424e-01</leafValues></_>
    <_>
      <internalNodes>
        0 -1 112912 -1.2950051575899124e-02</internalNodes>
      <leafValues>
        2.3009538650512695e-02 -6.9197082519531250e-01</leafValues></_>
    <_>
      <internalNodes>
        0 -1 94419 4.5354127883911133e-02</internalNodes>
      <leafValues>
        7.0658028125762939e-02 -6.5260004997253418e-01</leafValues></_>
    <_>
      <internalNodes>
        0 -1 137632 2.6914658956229687e-03</internalNodes>
      <leafValues>
        -1.4399603009223938e-01 3.0377775430679321e-01</leafValues></_>
    <_>
      <internalNodes>
        0 -1 137861 -2.0720707252621651e-03</internalNodes>
      <leafValues>
        3.8722500205039978e-01 -1.0252248495817184e-01</leafValues></_>
    <_>
      <internalNodes>
        0 -1 97211 -2.1629188209772110e-02</internalNodes>
      <leafValues>
        -6.3533830642700195e-01 6.4222246408462524e-02</leafValues></_>
    <_>
      <internalNodes>
        0 -1 131859 -3.4420725423842669e-03</internalNodes>
      <leafValues>
        1.8345800042152405e-01 -1.8631957471370697e-01</leafValues></_>
    <_>
      <internalNodes>
        0 -1 112505 2.0965139847248793e-03</internalNodes>
      <leafValues>
        -1.0550530999898911e-01 3.0069142580032349e-01</leafValues></_>
    <_>
      <internalNodes>
        0 -1 142418 -5.0650127232074738e-03</internalNodes>
      <leafValues>
        3.5291707515716553e-01 -9.4002529978752136e-02</leafValues></_>
    <_>
      <internalNodes>
        0 -1 96436 -2.9052393510937691e-03</internalNodes>
      <leafValues>
        2.9350674152374268e-01 -9.6361882984638214e-02</leafValues></_>
    <_>
      <internalNodes>
        0 -1 96141 -2.3990519344806671e-02</internalNodes>
      <leafValues>
        4.7208774834871292e-02 -6.4183413982391357e-01</leafValues></_>
    <_>
      <internalNodes>
        0 -1 112165 -4.7595476644346491e-05</internalNodes>
      <leafValues>
        -2.2121003270149231e-01 1.2584502995014191e-01</leafValues></_>
    <_>
      <internalNodes>
        0 -1 112165 5.2790615882258862e-05</internalNodes>
      <leafValues>
        1.5833309292793274e-01 -2.2935229539871216e-01</leafValues></_>
    <_>
      <internalNodes>
        0 -1 113334 -3.2349382527172565e-03</internalNodes>
      <leafValues>
        4.7154173254966736e-01 -6.0464296489953995e-02</leafValues></_>
    <_>
      <internalNodes>
        0 -1 68544 4.9519550520926714e-04</internalNodes>
      <leafValues>
        -1.2130928784608841e-01 2.4209299683570862e-01</leafValues></_>
    <_>
      <internalNodes>
        0 -1 119890 -3.8214349187910557e-03</internalNodes>
      <leafValues>
        3.8402542471885681e-01 -7.0463627576828003e-02</leafValues></_>
    <_>
      <internalNodes>
        0 -1 120133 -1.4618246350437403e-03</internalNodes>
      <leafValues>
        2.9478651285171509e-01 -1.1028520017862320e-01</leafValues></_>
    <_>
      <internalNodes>
        0 -1 68729 -2.3244259878993034e-02</internalNodes>
      <leafValues>
        -5.6554681062698364e-01 5.4616250097751617e-02</leafValues></_>
    <_>
      <internalNodes>
        0 -1 98993 -2.7462501078844070e-02</internalNodes>
      <leafValues>
        3.3817467093467712e-01 -8.4065437316894531e-02</leafValues></_>
    <_>
      <internalNodes>
        0 -1 147760 1.3407517224550247e-02</internalNodes>
      <leafValues>
        -6.1018053442239761e-02 4.1282978653907776e-01</leafValues></_>
    <_>
      <internalNodes>
        0 -1 1363 2.9057813808321953e-02</internalNodes>
      <leafValues>
        -9.7097299993038177e-02 2.6077109575271606e-01</leafValues></_>
    <_>
      <internalNodes>
        0 -1 21058 -1.8211036920547485e-02</internalNodes>
      <leafValues>
        3.8857743144035339e-01 -7.4517868459224701e-02</leafValues></_>
    <_>
      <internalNodes>
        0 -1 103027 -6.6302837803959846e-03</internalNodes>
      <leafValues>
        2.1851640939712524e-01 -1.2221483141183853e-01</leafValues></_>
    <_>
      <internalNodes>
        0 -1 112414 -6.8029455840587616e-02</internalNodes>
      <leafValues>
        2.9325217008590698e-01 -1.2728385627269745e-01</leafValues></_>
    <_>
      <internalNodes>
        0 -1 119595 5.5534452258143574e-05</internalNodes>
      <leafValues>
        1.1541314423084259e-01 -2.3579674959182739e-01</leafValues></_>
    <_>
      <internalNodes>
        0 -1 132258 2.1974606439471245e-02</internalNodes>
      <leafValues>
        5.1511127501726151e-02 -4.8570865392684937e-01</leafValues></_>
    <_>
      <internalNodes>
        0 -1 112179 3.8576419465243816e-03</internalNodes>
      <leafValues>
        -8.9136913418769836e-02 3.0356863141059875e-01</leafValues></_>
    <_>
      <internalNodes>
        0 -1 104872 1.5712514519691467e-02</internalNodes>
      <leafValues>
        6.2850765883922577e-02 -4.4444966316223145e-01</leafValues></_>
    <_>
      <internalNodes>
        0 -1 141356 2.4869479238986969e-03</internalNodes>
      <leafValues>
        -1.2082765996456146e-01 2.1537005901336670e-01</leafValues></_>
    <_>
      <internalNodes>
        0 -1 8912 -1.0507651418447495e-01</internalNodes>
      <leafValues>
        -7.3940986394882202e-01 3.5741612315177917e-02</leafValues></_>
    <_>
      <internalNodes>
        0 -1 125431 5.9180413372814655e-03</internalNodes>
      <leafValues>
        -7.2956450283527374e-02 3.6973169445991516e-01</leafValues></_>
    <_>
      <internalNodes>
        0 -1 112490 -5.1506511226762086e-05</internalNodes>
      <leafValues>
        -1.8669861555099487e-01 1.2929990887641907e-01</leafValues></_>
    <_>
      <internalNodes>
        0 -1 112490 -1.9792662933468819e-03</internalNodes>
      <leafValues>
        4.1184359788894653e-01 -6.0498986393213272e-02</leafValues></_>
    <_>
      <internalNodes>
        0 -1 77431 -3.6118738353252411e-02</internalNodes>
      <leafValues>
        4.9525633454322815e-02 -5.0571238994598389e-01</leafValues></_>
    <_>
      <internalNodes>
        0 -1 37649 -1.9855268299579620e-02</internalNodes>
      <leafValues>
        -7.9745918512344360e-02 3.3929026126861572e-01</leafValues></_>
    <_>
      <internalNodes>
        0 -1 87163 -3.3149865921586752e-03</internalNodes>
      <leafValues>
        2.9014009237289429e-01 -8.7098971009254456e-02</leafValues></_>
    <_>
      <internalNodes>
        0 -1 67690 -1.2945730704814196e-03</internalNodes>
      <leafValues>
        2.3709721863269806e-01 -9.2925161123275757e-02</leafValues></_>
    <_>
      <internalNodes>
        0 -1 113141 -6.8851429969072342e-03</internalNodes>
      <leafValues>
        3.4392029047012329e-02 -7.3224866390228271e-01</leafValues></_>
    <_>
      <internalNodes>
        0 -1 101221 1.1610310524702072e-02</internalNodes>
      <leafValues>
        4.7511886805295944e-02 -4.1803535819053650e-01</leafValues></_>
    <_>
      <internalNodes>
        0 -1 117861 -1.0032022692030296e-04</internalNodes>
      <leafValues>
        -2.0226149260997772e-01 1.0415361821651459e-01</leafValues></_>
    <_>
      <internalNodes>
        0 -1 117861 5.3415984439197928e-05</internalNodes>
      <leafValues>
        1.2814776599407196e-01 -1.8001438677310944e-01</leafValues></_>
    <_>
      <internalNodes>
        0 -1 77807 -2.5231770705431700e-03</internalNodes>
      <leafValues>
        2.2505885362625122e-01 -9.4241783022880554e-02</leafValues></_>
    <_>
      <internalNodes>
        0 -1 87289 2.7672702446579933e-02</internalNodes>
      <leafValues>
        3.9395943284034729e-02 -6.3393431901931763e-01</leafValues></_>
    <_>
      <internalNodes>
        0 -1 45611 -7.6425168663263321e-03</internalNodes>
      <leafValues>
        2.2502967715263367e-01 -1.0392960160970688e-01</leafValues></_>
    <_>
      <internalNodes>
        0 -1 104747 -5.1395012997090816e-03</internalNodes>
      <leafValues>
        6.2923955917358398e-01 -3.2336331903934479e-02</leafValues></_>
    <_>
      <internalNodes>
        0 -1 104742 -7.2524228016845882e-05</internalNodes>
      <leafValues>
        -2.6484432816505432e-01 1.2131995707750320e-01</leafValues></_></weakClassifiers></stage1>
</opencv_storage>
