<?xml version="1.0"?>
<opencv_storage>
<stage6>
  <maxWeakCount>100</maxWeakCount>
  <stageThreshold>-1.0976881980895996e+00</stageThreshold>
  <weakClassifiers>
    <_>
      <internalNodes>
        0 -1 131575 -2.4230689741671085e-03</internalNodes>
      <leafValues>
        3.4394904971122742e-01 -2.8745163232088089e-02</leafValues></_>
    <_>
      <internalNodes>
        0 -1 10200 2.9597830027341843e-02</internalNodes>
      <leafValues>
        -1.6903871297836304e-01 1.7490212619304657e-01</leafValues></_>
    <_>
      <internalNodes>
        0 -1 78899 -4.5518297702074051e-03</internalNodes>
      <leafValues>
        -1.7735394835472107e-01 1.2448275089263916e-01</leafValues></_>
    <_>
      <internalNodes>
        0 -1 146551 -2.1006070077419281e-02</internalNodes>
      <leafValues>
        1.9057364761829376e-01 -1.0194110125303268e-01</leafValues></_>
    <_>
      <internalNodes>
        0 -1 78231 -1.8334465567022562e-03</internalNodes>
      <leafValues>
        1.8987341225147247e-01 -1.2356051057577133e-01</leafValues></_>
    <_>
      <internalNodes>
        0 -1 88297 -7.8250728547573090e-03</internalNodes>
      <leafValues>
        5.9319544583559036e-02 -4.4171032309532166e-01</leafValues></_>
    <_>
      <internalNodes>
        0 -1 87545 -2.0303186029195786e-03</internalNodes>
      <leafValues>
        2.1854810416698456e-01 -8.6172088980674744e-02</leafValues></_>
    <_>
      <internalNodes>
        0 -1 96059 -4.2015509679913521e-03</internalNodes>
      <leafValues>
        2.5516059994697571e-01 -9.2439875006675720e-02</leafValues></_>
    <_>
      <internalNodes>
        0 -1 68286 8.0240797251462936e-03</internalNodes>
      <leafValues>
        5.7194404304027557e-02 -4.0998530387878418e-01</leafValues></_>
    <_>
      <internalNodes>
        0 -1 97102 1.7236282583326101e-03</internalNodes>
      <leafValues>
        -8.5486322641372681e-02 2.1457418799400330e-01</leafValues></_>
    <_>
      <internalNodes>
        0 -1 125412 1.1233802069909871e-05</internalNodes>
      <leafValues>
        1.0029473155736923e-01 -1.6213208436965942e-01</leafValues></_>
    <_>
      <internalNodes>
        0 -1 125412 -6.1385348089970648e-05</internalNodes>
      <leafValues>
        -1.5083649754524231e-01 1.1026302725076675e-01</leafValues></_>
    <_>
      <internalNodes>
        0 -1 147229 -3.3201929181814194e-03</internalNodes>
      <leafValues>
        2.6964476704597473e-01 -6.7000903189182281e-02</leafValues></_>
    <_>
      <internalNodes>
        0 -1 137385 -1.8636311870068312e-03</internalNodes>
      <leafValues>
        1.7211800813674927e-01 -1.1026789993047714e-01</leafValues></_>
    <_>
      <internalNodes>
        0 -1 120160 -5.8060549199581146e-03</internalNodes>
      <leafValues>
        2.6605885475873947e-02 -4.4724699854850769e-01</leafValues></_>
    <_>
      <internalNodes>
        0 -1 67695 -2.9908879660069942e-03</internalNodes>
      <leafValues>
        2.1736530959606171e-01 -7.0733986794948578e-02</leafValues></_>
    <_>
      <internalNodes>
        0 -1 102346 1.7990615218877792e-02</internalNodes>
      <leafValues>
        4.5420877635478973e-02 -3.5869240760803223e-01</leafValues></_>
    <_>
      <internalNodes>
        0 -1 129389 4.3411357328295708e-03</internalNodes>
      <leafValues>
        -8.7036840617656708e-02 1.8441630899906158e-01</leafValues></_>
    <_>
      <internalNodes>
        0 -1 99069 -2.1691551432013512e-02</internalNodes>
      <leafValues>
        2.6505789160728455e-01 -6.4141504466533661e-02</leafValues></_>
    <_>
      <internalNodes>
        0 -1 80441 -2.9925689101219177e-02</internalNodes>
      <leafValues>
        3.1119519472122192e-01 -5.1092892885208130e-02</leafValues></_>
    <_>
      <internalNodes>
        0 -1 88765 -4.8568047583103180e-02</internalNodes>
      <leafValues>
        2.6682528853416443e-01 -6.5146259963512421e-02</leafValues></_>
    <_>
      <internalNodes>
        0 -1 105814 3.8685607723891735e-03</internalNodes>
      <leafValues>
        -1.0371376574039459e-01 1.8453562259674072e-01</leafValues></_>
    <_>
      <internalNodes>
        0 -1 65564 -4.0325606241822243e-03</internalNodes>
      <leafValues>
        2.7149626612663269e-01 -5.3189177066087723e-02</leafValues></_>
    <_>
      <internalNodes>
        0 -1 111809 -5.1633734983624890e-05</internalNodes>
      <leafValues>
        -1.5145859122276306e-01 9.6767202019691467e-02</leafValues></_>
    <_>
      <internalNodes>
        0 -1 110816 -3.1673549674451351e-03</internalNodes>
      <leafValues>
        1.6919620335102081e-01 -1.0796290636062622e-01</leafValues></_>
    <_>
      <internalNodes>
        0 -1 115085 7.8328847885131836e-03</internalNodes>
      <leafValues>
        -1.6715779900550842e-01 1.1107204854488373e-01</leafValues></_>
    <_>
      <internalNodes>
        0 -1 112490 -1.1070729669881985e-05</internalNodes>
      <leafValues>
        -1.6869784891605377e-01 1.0254372656345367e-01</leafValues></_>
    <_>
      <internalNodes>
        0 -1 112490 7.3444243753328919e-05</internalNodes>
      <leafValues>
        1.1632715910673141e-01 -1.4345654845237732e-01</leafValues></_>
    <_>
      <internalNodes>
        0 -1 137861 2.4150770623236895e-03</internalNodes>
      <leafValues>
        -6.8910516798496246e-02 2.2463384270668030e-01</leafValues></_>
    <_>
      <internalNodes>
        0 -1 137861 -2.5215903297066689e-03</internalNodes>
      <leafValues>
        2.5333487987518311e-01 -6.4444608986377716e-02</leafValues></_>
    <_>
      <internalNodes>
        0 -1 111928 -2.2031811997294426e-02</internalNodes>
      <leafValues>
        -3.4762910008430481e-01 4.4026181101799011e-02</leafValues></_>
    <_>
      <internalNodes>
        0 -1 120162 -1.2319711968302727e-03</internalNodes>
      <leafValues>
        1.4888475835323334e-01 -1.0796546936035156e-01</leafValues></_>
    <_>
      <internalNodes>
        0 -1 112165 -9.2766731540905312e-06</internalNodes>
      <leafValues>
        -1.4807409048080444e-01 8.9745171368122101e-02</leafValues></_>
    <_>
      <internalNodes>
        0 -1 112165 2.2905707737663761e-05</internalNodes>
      <leafValues>
        1.1665092408657074e-01 -1.4557534456253052e-01</leafValues></_>
    <_>
      <internalNodes>
        0 -1 145338 -1.4124452136456966e-02</internalNodes>
      <leafValues>
        -9.2200171947479248e-01 1.6795344650745392e-02</leafValues></_>
    <_>
      <internalNodes>
        0 -1 112179 -3.6788368597626686e-03</internalNodes>
      <leafValues>
        2.1946400403976440e-01 -6.7206174135208130e-02</leafValues></_>
    <_>
      <internalNodes>
        0 -1 104413 -2.9948097653687000e-03</internalNodes>
      <leafValues>
        1.8378268182277679e-01 -7.5838975608348846e-02</leafValues></_>
    <_>
      <internalNodes>
        0 -1 118987 -5.1383203826844692e-03</internalNodes>
      <leafValues>
        2.8659570217132568e-01 -5.1489841192960739e-02</leafValues></_>
    <_>
      <internalNodes>
        0 -1 118973 5.7008503063116223e-05</internalNodes>
      <leafValues>
        9.4716183841228485e-02 -1.6112421452999115e-01</leafValues></_>
    <_>
      <internalNodes>
        0 -1 94285 1.7419688403606415e-02</internalNodes>
      <leafValues>
        2.8604170307517052e-02 -5.5316126346588135e-01</leafValues></_>
    <_>
      <internalNodes>
        0 -1 105153 -1.1197354644536972e-02</internalNodes>
      <leafValues>
        -4.4955721497535706e-01 2.6818688958883286e-02</leafValues></_>
    <_>
      <internalNodes>
        0 -1 88229 4.3475098209455609e-04</internalNodes>
      <leafValues>
        -9.4862043857574463e-02 1.4130227267742157e-01</leafValues></_>
    <_>
      <internalNodes>
        0 -1 120374 -2.5541193317621946e-03</internalNodes>
      <leafValues>
        1.1888216435909271e-01 -1.0645803064107895e-01</leafValues></_>
    <_>
      <internalNodes>
        0 -1 106380 1.4877823181450367e-02</internalNodes>
      <leafValues>
        -4.3057039380073547e-02 3.3473348617553711e-01</leafValues></_>
    <_>
      <internalNodes>
        0 -1 133755 -1.2397244572639465e-02</internalNodes>
      <leafValues>
        -3.9798453450202942e-01 3.1670447438955307e-02</leafValues></_>
    <_>
      <internalNodes>
        0 -1 131679 -5.1105659455060959e-02</internalNodes>
      <leafValues>
        -4.7917127609252930e-01 2.3495079949498177e-02</leafValues></_>
    <_>
      <internalNodes>
        0 -1 112432 1.3994682580232620e-02</internalNodes>
      <leafValues>
        3.2216321676969528e-02 -4.0210980176925659e-01</leafValues></_>
    <_>
      <internalNodes>
        0 -1 146856 3.3578658476471901e-03</internalNodes>
      <leafValues>
        -6.2359850853681564e-02 2.0451402664184570e-01</leafValues></_>
    <_>
      <internalNodes>
        0 -1 37199 2.2481041960418224e-03</internalNodes>
      <leafValues>
        2.3718232288956642e-02 -5.4008072614669800e-01</leafValues></_>
    <_>
      <internalNodes>
        0 -1 133599 2.3121526464819908e-03</internalNodes>
      <leafValues>
        4.9349069595336914e-02 -2.5209212303161621e-01</leafValues></_>
    <_>
      <internalNodes>
        0 -1 147056 -3.6273417063057423e-03</internalNodes>
      <leafValues>
        2.3042908310890198e-01 -5.5951744318008423e-02</leafValues></_>
    <_>
      <internalNodes>
        0 -1 92048 -1.5197737142443657e-02</internalNodes>
      <leafValues>
        2.5071436166763306e-01 -4.1703008115291595e-02</leafValues></_>
    <_>
      <internalNodes>
        0 -1 101701 3.9770146831870079e-03</internalNodes>
      <leafValues>
        -9.0989343822002411e-02 1.4136837422847748e-01</leafValues></_>
    <_>
      <internalNodes>
        0 -1 68906 7.8696501441299915e-04</internalNodes>
      <leafValues>
        -7.0684418082237244e-02 1.6482333838939667e-01</leafValues></_>
    <_>
      <internalNodes>
        0 -1 78352 -1.7824044451117516e-02</internalNodes>
      <leafValues>
        -5.3849631547927856e-01 2.5175545364618301e-02</leafValues></_>
    <_>
      <internalNodes>
        0 -1 102457 -7.3731318116188049e-03</internalNodes>
      <leafValues>
        1.5131039917469025e-01 -8.6195737123489380e-02</leafValues></_>
    <_>
      <internalNodes>
        0 -1 112210 -6.2213419005274773e-03</internalNodes>
      <leafValues>
        2.6053857058286667e-02 -5.2917003631591797e-01</leafValues></_>
    <_>
      <internalNodes>
        0 -1 58709 1.5078995376825333e-02</internalNodes>
      <leafValues>
        3.5938903689384460e-02 -3.2208219170570374e-01</leafValues></_>
    <_>
      <internalNodes>
        0 -1 88934 -1.0126989800482988e-03</internalNodes>
      <leafValues>
        -1.4445397257804871e-01 8.8441573083400726e-02</leafValues></_>
    <_>
      <internalNodes>
        0 -1 23425 1.5349161624908447e-01</internalNodes>
      <leafValues>
        3.7045653909444809e-02 -3.3385413885116577e-01</leafValues></_>
    <_>
      <internalNodes>
        0 -1 87930 -5.6934910826385021e-03</internalNodes>
      <leafValues>
        1.4275592565536499e-01 -8.8535532355308533e-02</leafValues></_>
    <_>
      <internalNodes>
        0 -1 157219 -2.4069184437394142e-03</internalNodes>
      <leafValues>
        -3.0710130929946899e-01 3.9412327110767365e-02</leafValues></_>
    <_>
      <internalNodes>
        0 -1 141042 -1.3268175534904003e-03</internalNodes>
      <leafValues>
        1.3078100979328156e-01 -8.8674128055572510e-02</leafValues></_>
    <_>
      <internalNodes>
        0 -1 136492 -5.8267386630177498e-03</internalNodes>
      <leafValues>
        -4.5132929086685181e-01 2.9173014685511589e-02</leafValues></_>
    <_>
      <internalNodes>
        0 -1 35481 -7.9920217394828796e-03</internalNodes>
      <leafValues>
        2.5003659725189209e-01 -4.8639263957738876e-02</leafValues></_>
    <_>
      <internalNodes>
        0 -1 15540 1.5831783413887024e-02</internalNodes>
      <leafValues>
        -8.9739486575126648e-02 1.6286234557628632e-01</leafValues></_>
    <_>
      <internalNodes>
        0 -1 131833 4.4153705239295959e-03</internalNodes>
      <leafValues>
        -7.4873350560665131e-02 1.5910290181636810e-01</leafValues></_>
    <_>
      <internalNodes>
        0 -1 136608 -3.6099128425121307e-02</internalNodes>
      <leafValues>
        -7.7267754077911377e-01 1.5825556591153145e-02</leafValues></_>
    <_>
      <internalNodes>
        0 -1 37422 -1.1544533073902130e-01</internalNodes>
      <leafValues>
        1.7998678982257843e-01 -6.6190019249916077e-02</leafValues></_>
    <_>
      <internalNodes>
        0 -1 119882 -3.7683306727558374e-03</internalNodes>
      <leafValues>
        -5.0593264400959015e-02 2.4053905904293060e-01</leafValues></_>
    <_>
      <internalNodes>
        0 -1 104742 -6.4193976868409663e-05</internalNodes>
      <leafValues>
        -1.7032653093338013e-01 8.2264758646488190e-02</leafValues></_>
    <_>
      <internalNodes>
        0 -1 104408 3.6125639453530312e-03</internalNodes>
      <leafValues>
        -6.2611624598503113e-02 2.5038772821426392e-01</leafValues></_>
    <_>
      <internalNodes>
        0 -1 105365 -2.7230249252170324e-03</internalNodes>
      <leafValues>
        3.4963452816009521e-01 -3.5568844527006149e-02</leafValues></_>
    <_>
      <internalNodes>
        0 -1 126548 -3.9416924118995667e-02</internalNodes>
      <leafValues>
        1.7150911688804626e-01 -7.9018212854862213e-02</leafValues></_>
    <_>
      <internalNodes>
        0 -1 118973 -5.4704218200640753e-05</internalNodes>
      <leafValues>
        -1.4726008474826813e-01 9.0833701193332672e-02</leafValues></_>
    <_>
      <internalNodes>
        0 -1 119317 1.8139018211513758e-03</internalNodes>
      <leafValues>
        -8.7720133364200592e-02 1.5343642234802246e-01</leafValues></_>
    <_>
      <internalNodes>
        0 -1 119608 -1.7986524617299438e-03</internalNodes>
      <leafValues>
        1.6475018858909607e-01 -7.6373457908630371e-02</leafValues></_>
    <_>
      <internalNodes>
        0 -1 103725 -2.7609661221504211e-02</internalNodes>
      <leafValues>
        -4.6898654103279114e-01 2.6662897318601608e-02</leafValues></_>
    <_>
      <internalNodes>
        0 -1 132081 -2.6942079421132803e-03</internalNodes>
      <leafValues>
        1.4190360903739929e-01 -9.2730246484279633e-02</leafValues></_>
    <_>
      <internalNodes>
        0 -1 109940 6.5539707429707050e-03</internalNodes>
      <leafValues>
        -8.0362446606159210e-02 1.5859395265579224e-01</leafValues></_>
    <_>
      <internalNodes>
        0 -1 156793 -2.5627589784562588e-03</internalNodes>
      <leafValues>
        -5.7505077123641968e-01 2.1193033084273338e-02</leafValues></_>
    <_>
      <internalNodes>
        0 -1 100387 -1.3126121461391449e-01</internalNodes>
      <leafValues>
        -5.3501474857330322e-01 2.0537719130516052e-02</leafValues></_>
    <_>
      <internalNodes>
        0 -1 67352 -2.1219030022621155e-02</internalNodes>
      <leafValues>
        -5.3299546241760254e-01 2.0283818244934082e-02</leafValues></_>
    <_>
      <internalNodes>
        0 -1 104824 -5.9298817068338394e-03</internalNodes>
      <leafValues>
        1.9378867000341415e-02 -5.2384763956069946e-01</leafValues></_>
    <_>
      <internalNodes>
        0 -1 126624 2.2484189830720425e-03</internalNodes>
      <leafValues>
        -4.0021933615207672e-02 3.0510631203651428e-01</leafValues></_>
    <_>
      <internalNodes>
        0 -1 12591 -8.2404566928744316e-03</internalNodes>
      <leafValues>
        -4.8971988260746002e-02 2.4696515500545502e-01</leafValues></_>
    <_>
      <internalNodes>
        0 -1 112165 -9.2766731540905312e-06</internalNodes>
      <leafValues>
        -1.3121514022350311e-01 8.7094180285930634e-02</leafValues></_>
    <_>
      <internalNodes>
        0 -1 147624 1.3450821861624718e-02</internalNodes>
      <leafValues>
        -4.3866179883480072e-02 2.7247929573059082e-01</leafValues></_>
    <_>
      <internalNodes>
        0 -1 95710 -4.3261963874101639e-02</internalNodes>
      <leafValues>
        2.0912570878863335e-02 -6.2250959873199463e-01</leafValues></_>
    <_>
      <internalNodes>
        0 -1 94876 -3.7686240393668413e-03</internalNodes>
      <leafValues>
        1.4723476767539978e-01 -8.4441877901554108e-02</leafValues></_>
    <_>
      <internalNodes>
        0 -1 162091 -1.3331843074411154e-03</internalNodes>
      <leafValues>
        -1.9720043241977692e-01 6.1237275600433350e-02</leafValues></_>
    <_>
      <internalNodes>
        0 -1 94281 -3.7495880387723446e-03</internalNodes>
      <leafValues>
        1.6901229321956635e-01 -7.1137547492980957e-02</leafValues></_>
    <_>
      <internalNodes>
        0 -1 119299 -4.4493936002254486e-05</internalNodes>
      <leafValues>
        -1.1877939850091934e-01 1.0674196481704712e-01</leafValues></_>
    <_>
      <internalNodes>
        0 -1 119299 9.2766731540905312e-06</internalNodes>
      <leafValues>
        9.3103386461734772e-02 -1.5445144474506378e-01</leafValues></_>
    <_>
      <internalNodes>
        0 -1 117090 -3.6843247711658478e-02</internalNodes>
      <leafValues>
        -3.2068482041358948e-01 3.9842162281274796e-02</leafValues></_>
    <_>
      <internalNodes>
        0 -1 126357 2.9488666914403439e-03</internalNodes>
      <leafValues>
        -5.5717319250106812e-02 2.1786232292652130e-01</leafValues></_>
    <_>
      <internalNodes>
        0 -1 7423 3.8494286127388477e-03</internalNodes>
      <leafValues>
        4.3094560503959656e-02 -2.8647780418395996e-01</leafValues></_>
    <_>
      <internalNodes>
        0 -1 8813 -2.3919325321912766e-03</internalNodes>
      <leafValues>
        -3.2674142718315125e-01 3.5709436982870102e-02</leafValues></_>
    <_>
      <internalNodes>
        0 -1 143420 2.9417625628411770e-03</internalNodes>
      <leafValues>
        -8.6830243468284607e-02 1.4046992361545563e-01</leafValues></_>
    <_>
      <internalNodes>
        0 -1 76455 4.4796012341976166e-02</internalNodes>
      <leafValues>
        1.8669500946998596e-02 -6.8669605255126953e-01</leafValues></_></weakClassifiers></stage6>
</opencv_storage>
