<?xml version="1.0"?>
<opencv_storage>
<stage10>
  <maxWeakCount>100</maxWeakCount>
  <stageThreshold>-1.0465819835662842e+00</stageThreshold>
  <weakClassifiers>
    <_>
      <internalNodes>
        0 -1 125165 -3.0264991801232100e-04</internalNodes>
      <leafValues>
        3.1098854541778564e-01 -5.5592767894268036e-02</leafValues></_>
    <_>
      <internalNodes>
        0 -1 131205 -9.7667716545402072e-06</internalNodes>
      <leafValues>
        -2.0682163536548615e-01 1.2963502109050751e-01</leafValues></_>
    <_>
      <internalNodes>
        0 -1 8342 1.7704166471958160e-02</internalNodes>
      <leafValues>
        -1.4297206699848175e-01 1.4741095900535583e-01</leafValues></_>
    <_>
      <internalNodes>
        0 -1 79390 -1.1607251130044460e-02</internalNodes>
      <leafValues>
        7.4986249208450317e-02 -2.6312413811683655e-01</leafValues></_>
    <_>
      <internalNodes>
        0 -1 79475 -3.2407748512923717e-03</internalNodes>
      <leafValues>
        -2.4614070355892181e-01 6.8542562425136566e-02</leafValues></_>
    <_>
      <internalNodes>
        0 -1 147353 1.9056223332881927e-02</internalNodes>
      <leafValues>
        -1.0702243447303772e-01 1.5318110585212708e-01</leafValues></_>
    <_>
      <internalNodes>
        0 -1 149242 2.6714269071817398e-02</internalNodes>
      <leafValues>
        -5.5842988193035126e-02 3.6827030777931213e-01</leafValues></_>
    <_>
      <internalNodes>
        0 -1 131803 -5.3596744692185894e-05</internalNodes>
      <leafValues>
        -1.5232349932193756e-01 8.5857741534709930e-02</leafValues></_>
    <_>
      <internalNodes>
        0 -1 102276 1.3325667940080166e-02</internalNodes>
      <leafValues>
        3.2143417745828629e-02 -4.9472874402999878e-01</leafValues></_>
    <_>
      <internalNodes>
        0 -1 158900 -2.5161558296531439e-03</internalNodes>
      <leafValues>
        -5.6238162517547607e-01 7.1979407221078873e-03</leafValues></_>
    <_>
      <internalNodes>
        0 -1 132314 2.5958674959838390e-03</internalNodes>
      <leafValues>
        -2.0427517592906952e-02 3.7930673360824585e-01</leafValues></_>
    <_>
      <internalNodes>
        0 -1 159599 -2.6057241484522820e-03</internalNodes>
      <leafValues>
        -5.9094727039337158e-01 1.0063457302749157e-02</leafValues></_>
    <_>
      <internalNodes>
        0 -1 119594 2.8249330352991819e-03</internalNodes>
      <leafValues>
        -2.9516277834773064e-02 4.0095025300979614e-01</leafValues></_>
    <_>
      <internalNodes>
        0 -1 125412 6.7629676777869463e-05</internalNodes>
      <leafValues>
        7.8847154974937439e-02 -1.5388377010822296e-01</leafValues></_>
    <_>
      <internalNodes>
        0 -1 92792 5.4123243317008018e-03</internalNodes>
      <leafValues>
        -8.2003995776176453e-02 1.5362751483917236e-01</leafValues></_>
    <_>
      <internalNodes>
        0 -1 116058 -5.1084766164422035e-04</internalNodes>
      <leafValues>
        1.2250600010156631e-01 -1.0597122460603714e-01</leafValues></_>
    <_>
      <internalNodes>
        0 -1 119298 -9.7667716545402072e-06</internalNodes>
      <leafValues>
        -1.3162453472614288e-01 1.0313924401998520e-01</leafValues></_>
    <_>
      <internalNodes>
        0 -1 12532 1.2521375901997089e-03</internalNodes>
      <leafValues>
        3.5919945687055588e-02 -3.4169417619705200e-01</leafValues></_>
    <_>
      <internalNodes>
        0 -1 119298 1.0684803783078678e-05</internalNodes>
      <leafValues>
        8.7917551398277283e-02 -1.4077144861221313e-01</leafValues></_>
    <_>
      <internalNodes>
        0 -1 138078 1.6740302089601755e-03</internalNodes>
      <leafValues>
        -5.2745167165994644e-02 2.3667381703853607e-01</leafValues></_>
    <_>
      <internalNodes>
        0 -1 137385 -7.5412017758935690e-04</internalNodes>
      <leafValues>
        1.2434025853872299e-01 -1.2577635049819946e-01</leafValues></_>
    <_>
      <internalNodes>
        0 -1 98482 -4.6465612947940826e-02</internalNodes>
      <leafValues>
        5.6861746311187744e-01 -1.8114138394594193e-02</leafValues></_>
    <_>
      <internalNodes>
        0 -1 113406 -2.2025924175977707e-02</internalNodes>
      <leafValues>
        -4.3120142817497253e-01 2.9290027916431427e-02</leafValues></_>
    <_>
      <internalNodes>
        0 -1 110763 -9.1359816724434495e-04</internalNodes>
      <leafValues>
        1.1167874932289124e-01 -1.0988518595695496e-01</leafValues></_>
    <_>
      <internalNodes>
        0 -1 125560 3.9038215763866901e-03</internalNodes>
      <leafValues>
        -6.2812402844429016e-02 2.6231417059898376e-01</leafValues></_>
    <_>
      <internalNodes>
        0 -1 130886 -2.4706081603653729e-05</internalNodes>
      <leafValues>
        -1.6244907677173615e-01 9.2599540948867798e-02</leafValues></_>
    <_>
      <internalNodes>
        0 -1 32544 -2.5645596906542778e-03</internalNodes>
      <leafValues>
        -5.9931683540344238e-01 1.7550090327858925e-02</leafValues></_>
    <_>
      <internalNodes>
        0 -1 24735 -2.3215031251311302e-03</internalNodes>
      <leafValues>
        -4.7369542717933655e-01 2.2108148783445358e-02</leafValues></_>
    <_>
      <internalNodes>
        0 -1 150995 -5.2382834255695343e-03</internalNodes>
      <leafValues>
        2.2833010554313660e-01 -5.0640441477298737e-02</leafValues></_>
    <_>
      <internalNodes>
        0 -1 47911 1.0726515203714371e-02</internalNodes>
      <leafValues>
        -5.0651811063289642e-02 2.1261510252952576e-01</leafValues></_>
    <_>
      <internalNodes>
        0 -1 97406 -3.8495743647217751e-03</internalNodes>
      <leafValues>
        1.7827279865741730e-01 -7.9438522458076477e-02</leafValues></_>
    <_>
      <internalNodes>
        0 -1 97688 2.4363130796700716e-03</internalNodes>
      <leafValues>
        -7.9003982245922089e-02 1.8069003522396088e-01</leafValues></_>
    <_>
      <internalNodes>
        0 -1 117118 3.8102029357105494e-03</internalNodes>
      <leafValues>
        -5.0530411303043365e-02 2.3975101113319397e-01</leafValues></_>
    <_>
      <internalNodes>
        0 -1 96045 -4.7161232942016795e-05</internalNodes>
      <leafValues>
        -1.6685220599174500e-01 7.7169574797153473e-02</leafValues></_>
    <_>
      <internalNodes>
        0 -1 95650 2.7287150733172894e-03</internalNodes>
      <leafValues>
        -6.7548103630542755e-02 1.8004035949707031e-01</leafValues></_>
    <_>
      <internalNodes>
        0 -1 24059 -7.0228278636932373e-03</internalNodes>
      <leafValues>
        -4.0740260481834412e-01 3.0514447018504143e-02</leafValues></_>
    <_>
      <internalNodes>
        0 -1 87919 1.4993150252848864e-03</internalNodes>
      <leafValues>
        -6.9679081439971924e-02 1.6939637064933777e-01</leafValues></_>
    <_>
      <internalNodes>
        0 -1 78680 -9.7893830388784409e-04</internalNodes>
      <leafValues>
        1.2104728817939758e-01 -1.0733020305633545e-01</leafValues></_>
    <_>
      <internalNodes>
        0 -1 127844 3.2621272839605808e-03</internalNodes>
      <leafValues>
        2.0132383331656456e-02 -6.0996204614639282e-01</leafValues></_>
    <_>
      <internalNodes>
        0 -1 154008 -4.3910130858421326e-02</internalNodes>
      <leafValues>
        3.3071163296699524e-01 -3.7233777344226837e-02</leafValues></_>
    <_>
      <internalNodes>
        0 -1 88680 6.8042390048503876e-03</internalNodes>
      <leafValues>
        5.1527861505746841e-02 -2.3028592765331268e-01</leafValues></_>
    <_>
      <internalNodes>
        0 -1 96703 1.1407178640365601e-01</internalNodes>
      <leafValues>
        -2.9142232611775398e-02 4.0960526466369629e-01</leafValues></_>
    <_>
      <internalNodes>
        0 -1 102205 -3.7287808954715729e-03</internalNodes>
      <leafValues>
        -8.2429933547973633e-01 1.6943503171205521e-02</leafValues></_>
    <_>
      <internalNodes>
        0 -1 156367 1.6897873720154166e-03</internalNodes>
      <leafValues>
        -5.7952664792537689e-02 1.9701455533504486e-01</leafValues></_>
    <_>
      <internalNodes>
        0 -1 68616 -5.8152116835117340e-03</internalNodes>
      <leafValues>
        2.1266186609864235e-02 -4.9300703406333923e-01</leafValues></_>
    <_>
      <internalNodes>
        0 -1 85795 2.0038918592035770e-03</internalNodes>
      <leafValues>
        -7.6934315264225006e-02 1.5837547183036804e-01</leafValues></_>
    <_>
      <internalNodes>
        0 -1 86738 -2.2433076519519091e-03</internalNodes>
      <leafValues>
        1.6019585728645325e-01 -8.8476024568080902e-02</leafValues></_>
    <_>
      <internalNodes>
        0 -1 104394 -1.1874632036779076e-05</internalNodes>
      <leafValues>
        -1.5767936408519745e-01 8.0860488116741180e-02</leafValues></_>
    <_>
      <internalNodes>
        0 -1 104394 6.4609310356900096e-05</internalNodes>
      <leafValues>
        1.0377174615859985e-01 -1.1988084763288498e-01</leafValues></_>
    <_>
      <internalNodes>
        0 -1 132079 3.6247253883630037e-03</internalNodes>
      <leafValues>
        -4.7406133264303207e-02 2.4479749798774719e-01</leafValues></_>
    <_>
      <internalNodes>
        0 -1 138280 -1.1928452877327800e-03</internalNodes>
      <leafValues>
        1.4984998106956482e-01 -8.0269500613212585e-02</leafValues></_>
    <_>
      <internalNodes>
        0 -1 86386 2.3637268692255020e-02</internalNodes>
      <leafValues>
        2.3757554590702057e-02 -5.1500958204269409e-01</leafValues></_>
    <_>
      <internalNodes>
        0 -1 112300 -1.2119895545765758e-03</internalNodes>
      <leafValues>
        1.3924747705459595e-01 -8.0291561782360077e-02</leafValues></_>
    <_>
      <internalNodes>
        0 -1 147160 -1.6043510288000107e-02</internalNodes>
      <leafValues>
        -4.8235127329826355e-01 2.5054290890693665e-02</leafValues></_>
    <_>
      <internalNodes>
        0 -1 161165 1.3416656292974949e-03</internalNodes>
      <leafValues>
        3.3040829002857208e-02 -3.3194503188133240e-01</leafValues></_>
    <_>
      <internalNodes>
        0 -1 95246 1.8112978432327509e-03</internalNodes>
      <leafValues>
        -7.8521043062210083e-02 1.4470915496349335e-01</leafValues></_>
    <_>
      <internalNodes>
        0 -1 68720 4.7609042376279831e-03</internalNodes>
      <leafValues>
        3.3220645040273666e-02 -3.4748914837837219e-01</leafValues></_>
    <_>
      <internalNodes>
        0 -1 104132 -2.0186413079500198e-02</internalNodes>
      <leafValues>
        -3.4871718287467957e-01 2.7543816715478897e-02</leafValues></_>
    <_>
      <internalNodes>
        0 -1 96422 -1.0427454981254414e-05</internalNodes>
      <leafValues>
        -1.5134643018245697e-01 8.0210238695144653e-02</leafValues></_>
    <_>
      <internalNodes>
        0 -1 88090 -3.9236713200807571e-03</internalNodes>
      <leafValues>
        -1.3328044116497040e-01 8.8736087083816528e-02</leafValues></_>
    <_>
      <internalNodes>
        0 -1 47130 -1.1399402283132076e-02</internalNodes>
      <leafValues>
        2.3063015937805176e-01 -5.8051437139511108e-02</leafValues></_>
    <_>
      <internalNodes>
        0 -1 87155 -2.3181131109595299e-03</internalNodes>
      <leafValues>
        1.6961121559143066e-01 -6.0349397361278534e-02</leafValues></_>
    <_>
      <internalNodes>
        0 -1 87194 -3.3309208229184151e-03</internalNodes>
      <leafValues>
        9.9507067352533340e-03 -9.8774760961532593e-01</leafValues></_>
    <_>
      <internalNodes>
        0 -1 84775 -1.4187605120241642e-03</internalNodes>
      <leafValues>
        1.5718142688274384e-01 -7.0986419916152954e-02</leafValues></_>
    <_>
      <internalNodes>
        0 -1 81819 -1.2028390541672707e-02</internalNodes>
      <leafValues>
        2.1564105153083801e-01 -5.1026031374931335e-02</leafValues></_>
    <_>
      <internalNodes>
        0 -1 3745 2.7847377583384514e-02</internalNodes>
      <leafValues>
        -8.0241940915584564e-02 1.4908476173877716e-01</leafValues></_>
    <_>
      <internalNodes>
        0 -1 117583 4.3304033577442169e-02</internalNodes>
      <leafValues>
        1.9383635371923447e-02 -5.6304758787155151e-01</leafValues></_>
    <_>
      <internalNodes>
        0 -1 67093 4.7278571873903275e-02</internalNodes>
      <leafValues>
        -2.5374744087457657e-02 4.8864060640335083e-01</leafValues></_>
    <_>
      <internalNodes>
        0 -1 78982 -2.2110763937234879e-02</internalNodes>
      <leafValues>
        -6.3192963600158691e-01 1.9467754289507866e-02</leafValues></_>
    <_>
      <internalNodes>
        0 -1 41522 -1.9784227013587952e-02</internalNodes>
      <leafValues>
        2.4162299931049347e-01 -4.8454210162162781e-02</leafValues></_>
    <_>
      <internalNodes>
        0 -1 119005 -2.4777241051197052e-03</internalNodes>
      <leafValues>
        1.4847694337368011e-01 -7.4067212641239166e-02</leafValues></_>
    <_>
      <internalNodes>
        0 -1 119318 3.5414047306403518e-04</internalNodes>
      <leafValues>
        -1.0589917749166489e-01 1.3990370929241180e-01</leafValues></_>
    <_>
      <internalNodes>
        0 -1 119894 3.5975247155874968e-03</internalNodes>
      <leafValues>
        -6.4163655042648315e-02 2.0414583384990692e-01</leafValues></_>
    <_>
      <internalNodes>
        0 -1 161974 1.2940492015331984e-03</internalNodes>
      <leafValues>
        3.7542693316936493e-02 -3.0205112695693970e-01</leafValues></_>
    <_>
      <internalNodes>
        0 -1 70555 -3.4358061384409666e-03</internalNodes>
      <leafValues>
        -7.4378323554992676e-01 1.4736827462911606e-02</leafValues></_>
    <_>
      <internalNodes>
        0 -1 143024 -1.2649272684939206e-04</internalNodes>
      <leafValues>
        1.1458397842943668e-02 -8.0178648233413696e-01</leafValues></_>
    <_>
      <internalNodes>
        0 -1 29518 2.9814727604389191e-03</internalNodes>
      <leafValues>
        1.3220192864537239e-02 -6.5443670749664307e-01</leafValues></_>
    <_>
      <internalNodes>
        0 -1 112914 1.4483370818197727e-02</internalNodes>
      <leafValues>
        2.2769726812839508e-02 -4.1664645075798035e-01</leafValues></_>
    <_>
      <internalNodes>
        0 -1 96131 -7.1378769353032112e-03</internalNodes>
      <leafValues>
        1.8452448770403862e-02 -5.1902782917022705e-01</leafValues></_>
    <_>
      <internalNodes>
        0 -1 29135 1.3214386999607086e-02</internalNodes>
      <leafValues>
        -4.3816402554512024e-02 2.3424234986305237e-01</leafValues></_>
    <_>
      <internalNodes>
        0 -1 134912 -3.8776367902755737e-02</internalNodes>
      <leafValues>
        2.3091343045234680e-01 -4.8905234783887863e-02</leafValues></_>
    <_>
      <internalNodes>
        0 -1 158254 2.8158538043498993e-03</internalNodes>
      <leafValues>
        1.5412854030728340e-02 -6.2838011980056763e-01</leafValues></_>
    <_>
      <internalNodes>
        0 -1 95637 1.6718502156436443e-03</internalNodes>
      <leafValues>
        -5.5722702294588089e-02 1.9487208127975464e-01</leafValues></_>
    <_>
      <internalNodes>
        0 -1 114171 3.4406252205371857e-02</internalNodes>
      <leafValues>
        -1.7262961715459824e-02 5.7508170604705811e-01</leafValues></_>
    <_>
      <internalNodes>
        0 -1 143036 -4.5754695311188698e-03</internalNodes>
      <leafValues>
        2.2777883708477020e-01 -4.0098704397678375e-02</leafValues></_>
    <_>
      <internalNodes>
        0 -1 142421 2.3825163953006268e-03</internalNodes>
      <leafValues>
        -9.6600010991096497e-02 1.4456816017627716e-01</leafValues></_>
    <_>
      <internalNodes>
        0 -1 161870 2.7029719203710556e-03</internalNodes>
      <leafValues>
        2.1180333569645882e-02 -4.9666202068328857e-01</leafValues></_>
    <_>
      <internalNodes>
        0 -1 80602 -3.7386408075690269e-03</internalNodes>
      <leafValues>
        -8.7872600555419922e-01 9.7856465727090836e-03</leafValues></_>
    <_>
      <internalNodes>
        0 -1 47783 -1.9139094278216362e-02</internalNodes>
      <leafValues>
        -5.8318847417831421e-01 1.4593968167901039e-02</leafValues></_>
    <_>
      <internalNodes>
        0 -1 105965 2.4899004492908716e-03</internalNodes>
      <leafValues>
        -8.0793946981430054e-02 1.3804098963737488e-01</leafValues></_>
    <_>
      <internalNodes>
        0 -1 126642 4.1031194850802422e-03</internalNodes>
      <leafValues>
        -5.6830074638128281e-02 1.9634775817394257e-01</leafValues></_>
    <_>
      <internalNodes>
        0 -1 133001 -5.5307187139987946e-02</internalNodes>
      <leafValues>
        -4.8424813896417618e-02 2.2303213179111481e-01</leafValues></_>
    <_>
      <internalNodes>
        0 -1 77325 -3.0006580054759979e-03</internalNodes>
      <leafValues>
        4.4061984866857529e-02 -2.8162345290184021e-01</leafValues></_>
    <_>
      <internalNodes>
        0 -1 86724 -6.2610823079012334e-05</internalNodes>
      <leafValues>
        -1.4774945378303528e-01 7.1471653878688812e-02</leafValues></_>
    <_>
      <internalNodes>
        0 -1 142009 -2.2903425619006157e-02</internalNodes>
      <leafValues>
        -5.8873140811920166e-01 1.7180996015667915e-02</leafValues></_>
    <_>
      <internalNodes>
        0 -1 106799 -1.3638166710734367e-02</internalNodes>
      <leafValues>
        -2.9966968297958374e-01 3.2730560749769211e-02</leafValues></_>
    <_>
      <internalNodes>
        0 -1 119603 -7.3781562969088554e-03</internalNodes>
      <leafValues>
        4.4808045029640198e-01 -2.3351071402430534e-02</leafValues></_>
    <_>
      <internalNodes>
        0 -1 113108 -4.9476213753223419e-03</internalNodes>
      <leafValues>
        2.2277947515249252e-02 -4.7418245673179626e-01</leafValues></_>
    <_>
      <internalNodes>
        0 -1 55001 -1.8225908279418945e-02</internalNodes>
      <leafValues>
        -4.2634755373001099e-02 2.3575991392135620e-01</leafValues></_>
    <_>
      <internalNodes>
        0 -1 46138 -9.8717147484421730e-03</internalNodes>
      <leafValues>
        2.5006580352783203e-01 -4.3782103806734085e-02</leafValues></_></weakClassifiers></stage10>
</opencv_storage>
